svm_type c_svc
kernel_type rbf
gamma 0.0078125
nr_class 5
total_sv 159
rho -0.766271 -1.15126 -0.961007 -0.925984 -0.146313 0.00283354 -0.525448 0.457092 -0.782832 -0.896816
label 0 1 2 3 4
nr_sv 46 44 30 30 9
SV
32 32 32 14.05924410504301 2:0.666667 3:0.45283 4:0.116438 6:1 7:0.679389 8:1 9:0.225806 10:1 13:0.354167 
32 0 0 0 1:1 2:0.666667 3:0.528302 4:0.242009 6:1 7:0.717557 9:0.258065 12:1 13:0.520833 
2.811740830874708 0 0 0 2:0.666667 3:0.433962 4:0.415525 6:1 7:0.541985 9:0.241935 11:0.333333 13:0.458333 
32 32 32 32 1:1 2:1 3:0.0943396 4:0.187215 6:1 7:0.587786 8:1 9:0.483871 10:0.5 13:0.333333 
22.69471641424317 0 0 0 1:1 2:0.666667 3:0.415094 4:0.299087 6:1 7:0.648855 13:0.375 
32 0 0 0 1:1 2:1 3:0.245283 4:0.401826 6:1 7:0.610687 9:0.0645161 10:0.5 13:0.770833 
32 32 32 32 1:1 2:0.666667 3:0.339623 4:0.239726 7:0.572519 9:0.290323 10:0.5 11:1 12:1 13:0.6875 
29.82308537861977 0 0 0 1:1 2:1 3:0.264151 4:0.219178 6:1 7:0.877863 13:0.395833 
19.41670837539384 0 0 0 2:1 3:0.320755 4:0.40411 6:1 7:0.671756 11:0.333333 13:0.583333 
32 0 0 0 1:1 2:0.333333 3:0.386792 4:0.175799 7:0.465649 10:0.5 12:0.75 13:0.25 
32 32 0 0 1:1 2:0.666667 3:0.0566038 4:0.219178 7:0.549618 8:1 9:0.193548 10:0.5 13:0.458333 
32 0 32 0 1:1 2:0.666667 3:0.245283 4:0.30137 6:1 7:0.580153 9:0.0645161 10:0.5 12:1 13:0.520833 
32 32 32 0 1:1 2:0.666667 4:0.230594 7:0.633588 8:1 11:0.333333 12:1 13:0.458333 
32 0 0 0 1:1 2:1 3:0.433962 4:0.308219 6:1 7:0.877863 8:1 13:0.458333 
32 0 0 0 1:1 2:0.333333 3:0.433962 4:0.216895 7:0.709924 8:1 13:0.625 
32 32 32 32 1:1 2:0.666667 3:0.103774 4:0.260274 6:1 7:0.633588 8:1 9:0.0967742 10:0.5 12:1 13:0.604167 
32 31.88442326171143 14.47881962521117 1.412330703305594 2:0.666667 3:0.198113 4:1 6:1 7:0.679389 9:0.258065 10:0.5 12:1 13:0.791667 
32 32 27.94879154115327 0 1:1 2:0.666667 3:0.226415 4:0.344749 7:0.610687 9:0.16129 11:0.333333 12:1 13:0.8125 
32 32 32 0 1:1 2:1 3:0.358491 4:0.184932 7:0.740458 8:1 12:1 13:0.583333 
0.04214852828331792 0 0 0 2:0.333333 3:0.358491 4:0.369863 5:1 6:1 7:0.671756 8:1 11:0.333333 13:0.520833 
32 32 32 26.8421358895149 1:1 2:1 3:0.45283 4:0.228311 6:1 7:0.305344 8:1 12:1 13:0.5 
32 32 32 16.74350531485468 1:1 2:1 3:0.132075 4:0.244292 5:1 7:0.580153 9:0.016129 11:1 12:1 13:0.479167 
32 0 0 0 1:1 2:0.666667 3:0.339623 4:0.431507 7:0.694656 9:0.306452 11:0.333333 13:0.291667 
32 30.35948231489889 32 26.78403795804639 1:1 2:0.666667 3:0.339623 4:0.273973 5:1 6:1 7:0.778626 11:1 13:0.5 
32 0 0 0 1:1 3:0.509434 4:0.269406 6:1 7:0.816794 9:0.129032 11:0.666667 13:0.270833 
32 32 32 32 1:1 3:0.792453 4:0.328767 6:1 7:0.564885 9:0.677419 10:1 12:1 13:0.625 
13.7675843632136 32 18.73888008204143 0 1:1 2:0.666667 3:0.245283 4:0.260274 5:1 7:0.938931 9:0.129032 10:1 12:1 13:0.270833 
32 6.26469273305374 32 0 2:1 3:0.415094 4:0.251142 6:1 7:0.618321 8:1 9:0.0322581 10:0.5 13:0.333333 
32 28.23579674421756 0 0 2:1 3:0.811321 4:0.454338 7:0.633588 8:1 13:0.729167 
32 29.33509149633037 25.43637773083308 0 1:1 2:0.666667 3:0.528302 5:1 7:0.778626 9:0.0322581 11:0.333333 12:1 13:0.583333 
32 0 0 0 1:1 2:1 3:0.150943 4:0.194064 7:0.687023 12:1 13:0.291667 
32 0 0 0 1:1 2:0.666667 3:0.339623 4:0.200913 6:1 7:0.740458 9:0.322581 10:0.5 13:0.25 
13.33282961645202 0 0 0 1:1 3:0.245283 4:0.152968 6:1 7:0.694656 9:0.306452 10:0.5 12:1 13:0.5625 
32 0 30.91994419447641 0 2:1 3:0.415094 4:0.267123 6:1 7:0.618321 8:1 10:0.5 13:0.354167 
32 32 32 26.21681234299369 2:1 3:0.339623 4:0.40411 7:0.389313 9:0.322581 10:0.5 11:0.666667 13:0.729167 
32 0 0 0 1:1 2:1 3:0.415094 4:0.33105 6:1 7:0.847328 13:0.625 
32 0 5.709247506516428 0 2:0.333333 3:0.245283 4:0.326484 6:1 7:0.381679 8:1 9:0.0322581 11:0.333333 13:0.9375 
32 32 32 0 1:1 2:1 3:0.150943 4:0.171233 7:0.419847 8:1 9:0.241935 10:0.5 12:0.75 13:0.583333 
32 32 32 32 1:1 2:1 3:0.320755 4:0.312785 7:0.259542 8:1 9:0.0322581 10:0.5 11:0.333333 12:1 13:0.729167 
32 32 0 0 2:1 3:0.113208 4:0.221461 7:0.541985 9:0.0483871 11:0.666667 13:0.791667 
32 32 32 15.94193368624175 1:1 2:1 3:0.622642 4:0.232877 6:1 7:0.51145 9:0.370968 12:0.75 13:0.770833 
0 10.20931322278906 0 0 2:1 3:0.169811 4:0.0525114 7:0.412214 9:0.258065 10:0.5 13:0.875 
32 0 0 0 1:1 3:0.716981 4:0.230594 6:1 7:0.641221 9:0.0967742 10:0.5 12:1 13:0.729167 
7.048616270754779 0 0 0 2:0.666667 3:0.490566 4:0.347032 6:1 7:0.618321 10:0.5 11:0.333333 13:0.770833 
32 32 0 0 1:1 2:0.333333 3:0.292453 4:0.214612 7:0.557252 9:0.0645161 10:0.5 11:0.22408 12:1 13:0.604167 
32 0 0 0 1:1 2:0.333333 3:0.339623 4:0.216895 6:1 7:0.70229 12:1 13:0.5625 
-0 32 32 32 1:1 2:1 3:0.320755 4:0.205479 6:1 7:0.458015 8:1 9:0.354839 10:0.5 11:1 12:1 13:0.604167 
-32 0 0 6.00553028562322 1:1 2:0.666667 3:0.433962 4:0.134703 6:1 7:0.641221 9:0.483871 10:0.5 13:0.645833 
-32 32 0 0 1:1 2:0.666667 3:0.528302 4:0.239726 7:0.580153 9:0.580645 10:0.5 13:0.354167 
-0 32 32 30.61388886356197 1:1 2:1 3:0.245283 4:0.321918 7:0.21374 8:1 9:0.290323 10:0.5 11:0.666667 12:1 13:0.6875 
-32 32 32 0 1:1 2:1 3:0.150943 4:0.278539 6:1 7:0.664122 9:0.0967742 11:0.666667 12:0.75 13:0.75 
-32 0 0 0 1:1 2:1 3:0.150943 4:0.1621 6:1 7:0.80916 11:0.333333 13:0.3125 
-32 32 32 32 1:1 2:1 3:0.292453 4:0.30137 6:1 7:0.534351 8:1 9:0.451613 10:0.5 11:0.333333 12:1 13:0.645833 
-32 32 32 0 1:1 2:1 3:0.320755 4:0.294521 7:0.687023 8:1 11:0.333333 12:1 13:0.479167 
-32 32 32 14.98989837991197 1:1 2:0.666667 3:0.320755 4:0.23516 6:1 7:0.603053 9:0.0645161 10:0.5 11:0.333333 12:1 13:0.583333 
-32 32 32 9.739265028245141 2:1 3:0.481132 4:0.413242 6:1 7:0.572519 8:1 9:0.16129 10:0.5 12:1 13:0.666667 
-32 32 32 0 1:1 2:1 3:0.292453 4:0.280822 5:1 6:1 7:0.557252 8:1 9:0.193548 10:0.5 11:0.333333 13:0.5625 
-32 32 32 20.71639224965102 1:1 3:0.415094 4:0.356164 5:1 6:1 7:0.78626 9:0.225806 10:0.5 11:0.333333 13:0.75 
-32 32 32 0 1:1 2:1 3:0.245283 4:0.164384 7:0.450382 8:1 9:0.258065 10:0.5 12:1 13:0.125 
-32 0 0 0 1:1 3:0.716981 4:0.369863 6:1 7:0.671756 9:0.0322581 10:0.5 12:1 13:0.625 
-32 32 32 0 1:1 2:0.666667 3:0.292453 4:0.417808 7:0.458015 8:1 9:0.290323 10:0.5 12:1 13:0.729167 
-32 0 0 0 1:1 2:0.666667 3:0.132075 4:0.267123 7:0.618321 13:0.375 
-32 32 32 32 1:1 2:1 3:0.339623 4:0.447489 6:1 7:0.290076 9:0.387097 10:0.5 11:1 13:0.854167 
-32 32 32 0 1:1 2:1 3:0.433962 4:0.394977 7:0.778626 8:1 9:0.258065 12:1 13:0.458333 
-32 32 32 0 1:1 2:1 3:0.292453 4:0.39726 6:1 7:0.763359 11:0.666667 12:1 13:0.604167 
-32 0 3.509707182322377 0 1:1 2:1 3:0.301887 4:0.356164 6:1 7:0.648855 8:1 12:1 13:0.125 
-32 26.30029274599774 0 0 2:1 3:0.754717 4:0.280822 7:0.549618 8:1 10:0.5 13:0.625 
-0 32 32 0 1:1 2:1 3:0.54717 4:0.3379 7:0.129771 8:1 9:0.193548 10:0.5 11:0.333333 12:1 13:0.583333 
-12.93742977783519 32 32 26.37128578710952 1:1 2:1 3:0.358491 4:0.13242 6:1 7:0.259542 8:1 9:0.33871 10:0.5 11:0.333333 12:0.75 13:0.5625 
-32 0 0 0 2:1 3:0.603774 4:0.408676 6:1 7:0.687023 13:0.645833 
-32 0 0 20.21010711603489 1:1 2:0.333333 3:0.924528 4:0.358447 6:1 7:0.946565 11:0.333333 12:1 13:0.520833 
-32 32 32 8.119278949259511 1:1 2:1 3:0.358491 4:0.276256 5:1 6:1 7:0.549618 8:1 9:0.016129 10:0.5 11:0.22408 12:1 13:0.291667 
-32 0 0 0 1:1 3:0.622642 4:0.335616 6:1 7:0.412214 13:0.625 
-32 32 0 0 2:1 3:0.528302 4:0.269406 7:0.633588 8:1 9:0.225806 10:0.5 13:0.6875 
-32 0 0 0 1:1 2:1 3:0.169811 4:0.237443 7:0.679389 11:0.333333 13:0.479167 
-32 32 32 23.23435334060276 2:1 3:0.132075 4:0.326484 7:0.748092 8:1 9:0.290323 10:0.5 11:0.666667 13:0.708333 
-32 0 32 0 1:1 2:0.666667 3:0.226415 4:0.0525114 6:1 7:0.419847 9:0.129032 11:1 13:0.416667 
-32 0 0 0 1:1 2:1 3:0.245283 4:0.280822 6:1 7:0.557252 9:0.129032 12:1 13:0.354167 
-32 6.068532548953957 32 0 1:1 2:1 3:0.150943 4:0.340183 6:1 7:0.358779 8:1 9:0.16129 10:0.5 11:0.333333 13:0.375 
-32 32 32 32 1:1 2:1 3:0.490566 4:0.210046 7:0.259542 9:0.322581 10:0.5 11:0.333333 12:1 13:0.604167 
-32 15.40242789145041 0 0 1:1 2:0.333333 3:0.283019 4:0.308219 7:0.534351 9:0.0483871 12:1 13:0.583333 
-32 26.58068790962026 0 0 1:1 2:1 3:0.54717 4:0.221461 7:0.839695 12:1 13:0.229167 
-32 32 32 0 1:1 2:1 3:0.433962 4:0.184932 6:1 7:0.51145 8:1 9:0.306452 11:0.333333 12:1 13:0.666667 
-32 0 0 0 1:1 3:0.377358 4:0.178082 7:0.694656 9:0.129032 11:0.666667 13:0.625 
-32 0 0 0 1:1 2:0.333333 3:0.566038 4:0.242009 6:1 7:0.709924 11:0.333333 13:0.583333 
-32 32 32 0 1:1 2:0.666667 3:0.54717 4:0.196347 6:1 7:0.603053 9:0.129032 10:0.5 12:1 13:0.791667 
-32 0 0 0 2:1 3:0.283019 4:0.1621 7:0.496183 8:1 10:0.5 13:0.708333 
-32 32 32 0 2:1 3:0.433962 4:0.262557 7:0.396947 8:1 9:0.0322581 10:0.5 12:1 13:0.583333 
-32 32 27.54297707503826 0 1:1 3:0.150943 4:0.315068 7:0.465649 9:0.193548 10:0.5 12:1 13:0.333333 
-32 0 0 0 2:0.333333 3:0.339623 4:0.251142 6:1 7:0.78626 10:0.5 11:0.333333 13:0.583333 
-32 -32 32 0 1:1 2:1 3:0.245283 4:0.141553 7:0.320611 9:0.225806 10:0.5 11:0.333333 12:1 13:0.520833 
-0 -32 32 32 1:1 2:1 3:0.481132 4:0.356164 6:1 7:0.541985 8:1 9:0.451613 10:0.5 11:0.666667 12:1 13:0.645833 
-0 -32 32 32 1:1 2:1 3:0.716981 4:0.456621 6:1 7:0.526718 8:1 9:0.548387 10:1 12:1 13:0.625 
-32 -32 32 0 1:1 2:1 3:0.150943 4:0.257991 6:1 7:0.541985 8:1 9:0.193548 10:0.5 11:0.333333 12:1 13:0.625 
-32 -32 32 0 1:1 2:1 3:0.433962 4:0.116438 7:0.694656 8:1 11:0.333333 12:1 13:0.625 
-0 -28.50347569385813 32 0 1:1 2:1 3:0.245283 4:0.305936 7:0.526718 8:1 9:0.580645 10:0.5 11:0.333333 12:1 13:0.666667 
-32 -32 32 0 2:1 3:0.358491 4:0.490868 5:1 6:1 7:0.496183 8:1 9:0.483871 10:0.5 12:1 13:0.291667 
-32 -32 32 0 2:0.666667 3:0.339623 4:0.312785 7:0.198473 9:0.193548 10:0.5 11:0.333333 12:1 13:0.6875 
-32 -32 32 15.15036010146205 1:1 2:1 3:0.386792 4:0.292237 6:1 7:0.427481 9:0.451613 10:0.5 11:0.333333 12:1 13:0.75 
-32 -32 32 32 1:1 2:1 3:0.433962 4:0.381279 6:1 7:0.755725 9:0.193548 10:0.5 11:0.666667 12:1 13:0.645833 
-32 -32 32 8.572002733482439 2:1 3:0.377358 4:0.646119 6:1 7:0.603053 8:1 9:0.306452 10:0.5 11:0.666667 12:1 13:0.5625 
-32 -32 32 2.623404827910026 1:1 2:0.333333 3:0.622642 4:0.273973 7:0.374046 8:1 10:0.5 11:1 12:0.75 13:0.770833 
-32 -32 32 32 1:1 2:0.666667 3:0.433962 4:0.292237 6:1 7:0.572519 9:0.322581 10:0.5 11:1 12:1 13:0.833333 
-32 -0 32 23.74935645764182 2:1 3:0.415094 4:0.383562 5:1 7:0.267176 9:0.306452 10:0.5 11:1 13:0.6875 
-32 -32 32 18.71489670875618 1:1 2:1 3:0.169811 4:0.196347 6:1 7:0.465649 8:1 9:0.016129 11:0.333333 13:0.770833 
-32 -32 32 0 2:1 3:0.811321 4:0.458904 6:0.5 7:0.351145 8:1 9:0.548387 10:0.5 13:0.541667 
-0.6923696535382667 -25.08056367542127 32 1.640522138946581 1:1 2:1 3:0.339623 4:0.358447 5:1 6:1 7:0.244275 8:1 9:0.258065 10:1 12:1 13:0.5625 
-32 -32 28.04496227413264 24.18369043241464 1:1 3:0.377358 4:0.246575 7:0.564885 9:0.419355 10:0.5 11:0.666667 13:0.666667 
-32 -32 0 0 1:1 2:1 3:0.245283 4:0.253425 9:0.16129 10:0.5 13:0.791667 
-32 -32 17.0725074614485 0 1:1 2:1 3:0.0566038 4:0.246575 7:0.648855 9:0.016129 11:0.333333 12:1 13:0.604167 
-32 -32 32 0 1:1 2:1 3:0.396226 4:0.431507 7:0.412214 8:1 9:0.290323 10:0.5 12:0.75 13:0.270833 
-32 -32 18.88020862764082 0 1:1 2:1 3:0.320755 4:0.178082 5:1 7:0.648855 8:1 9:0.16129 10:0.5 12:0.433555 13:0.479167 
-32 -32 24.58885193574063 0 1:1 2:0.666667 3:0.301887 4:0.210046 5:1 7:0.480916 9:0.354839 10:0.5 11:0.333333 12:0.75 13:0.625 
-0 -31.21054292131386 32 6.119825925787141 1:1 2:1 3:0.433962 4:0.422374 7:0.374046 8:1 9:0.290323 10:0.5 11:0.666667 12:1 13:0.354167 
-32 -32 32 0 1:1 2:1 3:0.150943 4:0.477169 7:0.549618 8:1 9:0.483871 10:0.5 11:0.333333 12:1 13:0.583333 
-32 -32 12.61423391922045 0 1:1 2:1 3:0.509434 4:0.175799 7:0.687023 11:0.333333 12:1 13:0.666667 
-0 -21.55735880542912 32 5.453642125204022 2:1 3:0.716981 4:0.226027 5:1 6:1 7:0.572519 8:1 9:0.451613 10:0.5 11:0.666667 12:0.75 13:0.604167 
-32 -32 32 25.35672395207089 1:1 2:1 3:0.245283 4:0.0981735 7:0.557252 8:1 9:0.451613 10:1 12:0.75 13:0.3125 
-7.596430119462784 -32 32 26.5556702957644 1:1 2:1 3:0.433962 4:0.139269 6:1 7:0.557252 8:1 9:0.645161 11:0.666667 12:1 13:0.708333 
-0 -0 32 1.879904300559804 1:1 2:1 3:0.471698 4:0.152968 5:1 7:0.534351 9:0.548387 10:0.5 11:0.666667 12:1 13:0.8125 
-32 -32 -32 4.360950963362645 1:1 2:1 3:0.292453 4:0.292237 5:1 7:0.70229 9:0.0322581 10:0.5 11:0.666667 12:1 13:0.791667 
-32 -32 -32 0 1:1 2:1 3:0.528302 4:0.328767 6:1 7:0.305344 8:1 9:0.129032 12:1 13:0.604167 
-32 -32 -32 31.76882661687776 1:1 2:0.666667 3:0.811321 4:0.3379 5:1 6:1 7:0.603053 8:1 9:0.258065 10:0.5 12:1 13:0.8125 
-0 -0 -29.39886105631326 32 2:1 3:0.622642 4:0.086758 6:1 7:0.564885 9:1 10:1 11:1 12:1 13:0.6875 
-32 -32 -32 10.33109270060955 2:1 3:0.528302 4:0.30137 6:1 7:0.656489 9:0.419355 10:0.5 11:0.666667 12:1 13:0.645833 
-32 -32 -32 30.90925891190486 1:1 2:0.666667 3:0.245283 4:0.141553 7:0.519084 9:0.322581 10:0.5 11:1 12:1 13:0.416667 
-32 -32 -32 0 1:1 2:1 3:0.226415 4:0.212329 7:0.526718 9:0.193548 10:0.5 12:1 13:0.208333 
-0 -7.871777002318011 -1.245944270093585 0 1:1 2:1 3:0.339623 4:0.465753 5:1 6:1 7:0.465649 8:1 9:0.290323 11:1 12:1 13:0.708333 
-0 -32 -32 0 1:1 2:1 3:0.339623 4:0.296804 5:1 6:1 7:0.603053 8:1 11:0.666667 12:1 13:0.395833 
-0 -32 -32 0 1:1 2:1 3:0.433962 4:0.207763 7:0.305344 8:1 9:0.903226 10:1 12:1 13:0.541667 
-0 -0 -32 0 2:1 3:1 4:0.369863 5:1 6:1 7:0.473282 8:1 9:0.645161 10:1 11:0.666667 12:1 13:0.5625 
-32 -32 -32 0 1:1 2:1 3:0.150943 4:0.257991 7:0.419847 8:1 9:0.451613 10:0.5 11:0.333333 12:1 13:0.520833 
-32 -32 -32 1.56244385135444 1:1 2:0.333333 3:0.245283 4:0.353881 6:1 7:0.244275 9:0.225806 10:0.5 11:0.333333 12:1 13:0.6875 
-29.79353958594025 -32 -32 10.64542663188764 1:1 2:1 3:0.245283 4:0.273973 6:1 7:0.19084 8:1 9:0.354839 10:1 11:0.333333 13:0.729167 
-32 -32 -32 26.930096453681 1:1 2:0.666667 3:0.622642 4:0.326484 7:0.312977 8:1 9:0.467742 10:0.5 11:0.333333 12:1 13:0.854167 
-32 -32 -32 29.51637026343667 1:1 2:1 3:0.283019 4:0.3379 6:1 7:0.725191 9:0.0806452 10:0.5 12:1 13:0.395833 
-0 -9.296265597747169 -32 5.977257602296461 1:1 2:1 3:0.433962 4:0.392694 7:0.389313 8:1 9:0.677419 10:0.5 11:1 12:1 13:0.458333 
-32 -32 -32 32 1:1 2:1 3:0.0566038 4:0.394977 6:1 7:0.412214 8:1 9:0.145161 10:0.5 11:0.666667 13:0.791667 
-0 -32 -0 12.19385434493036 1:1 2:1 3:0.45283 4:0.417808 6:1 7:0.580153 8:1 10:0.5 11:1 12:1 13:0.333333 
-0 -32 -30.6289020113465 13.4771674820385 1:1 2:1 3:0.320755 4:0.303653 6:1 7:0.450382 8:1 9:0.483871 10:0.5 11:0.666667 12:1 13:0.604167 
-32 -32 -32 0 1:1 2:1 3:0.471698 4:0.16895 6:1 7:0.419847 8:1 9:0.145161 10:0.5 12:1 13:0.4375 
-29.43852109429156 -0.4143630137028956 -32 0 2:1 3:0.792453 4:0.232877 5:1 7:0.717557 8:1 9:0.16129 10:0.5 11:0.666667 12:1 13:0.770833 
-0 -32 -32 0 1:1 2:1 3:0.273585 4:0.356164 7:0.183206 8:1 9:0.322581 10:0.5 11:0.666667 12:1 13:0.5 
-32 -32 -32 0 1:1 2:1 3:0.150943 4:0.182648 6:1 7:0.282443 8:1 10:0.5 11:0.333333 13:0.520833 
-32 -32 -32 32 1:1 2:1 3:0.264151 4:0.365297 6:1 7:0.343511 8:1 9:0.516129 10:0.5 11:0.666667 13:0.520833 
-32 -32 -32 14.32725417762011 1:1 2:1 3:0.292453 4:0.196347 7:0.740458 9:0.16129 11:0.666667 12:1 13:0.479167 
-32 -32 -32 0 2:0.333333 3:0.396226 4:0.440639 5:1 6:1 7:0.618321 11:0.666667 13:0.604167 
-32 -32 -32 0 2:1 3:0.320755 4:0.180365 6:0.5 7:0.450382 8:1 9:0.322581 10:0.5 11:0.333333 12:1 13:0.541667 
-0 -13.47027864359256 -7.927056880429697 0 1:1 2:1 3:0.660377 4:0.114155 5:1 6:1 7:0.145038 9:0.16129 10:0.5 11:0.666667 12:0.75 13:0.625 
-32 -32 -32 0 1:1 2:1 3:0.339623 4:0.0114155 7:0.335878 8:1 9:0.193548 10:0.5 11:0.333333 12:1 13:0.583333 
-32 -32 -32 -32 2:1 3:0.528302 4:0.641553 6:1 7:0.633588 9:0.645161 10:0.5 11:1 12:1 13:0.708333 
-32 -32 -32 -32 1:1 2:1 3:0.481132 4:0.109589 7:0.412214 8:1 9:0.419355 10:1 12:1 13:0.854167 
-32 -32 -32 -32 1:1 2:1 3:0.669811 4:0.372146 5:1 6:1 7:0.40458 9:0.16129 10:0.5 11:1 12:1 13:0.583333 
-32 -32 -32 -32 1:1 2:1 3:0.622642 4:0.372146 6:1 7:0.564885 8:1 9:0.129032 10:0.5 11:0.333333 12:1 13:0.541667 
-32 -32 -32 -32 1:1 2:1 3:0.292453 4:0.406393 6:1 7:0.694656 8:1 11:1 13:1 
-32 -32 -32 -32 1:1 2:1 3:0.481132 4:0.196347 6:1 7:0.465649 9:0.322581 10:0.5 11:0.666667 12:0.75 13:0.729167 
-32 -32 -32 -32 1:1 3:0.245283 4:0.239726 7:0.847328 8:1 9:0.612903 10:0.5 12:1 13:0.1875 
-32 -32 -32 -32 1:1 2:1 3:0.415094 4:0.0913242 6:1 7:0.412214 8:1 9:0.580645 10:0.5 11:0.333333 13:0.666667 
-32 -32 -32 -32 1:1 2:1 3:0.188679 4:0.438356 6:0.5 7:0.526718 9:0.709677 10:1 11:1 12:0.75 13:0.604167 
