svm_type c_svc
kernel_type rbf
gamma 0.125
nr_class 2
total_sv 126
rho 0.0201445
label 1 -1
nr_sv 64 62
SV
1 2:0.666667 3:0.45283 4:0.116438 6:1 7:0.679389 8:1 9:0.225806 10:1 13:0.354167 
1 1:1 2:0.666667 3:0.528302 4:0.242009 6:1 7:0.717557 9:0.258065 12:1 13:0.520833 
0.1217124458991568 2:0.666667 3:0.433962 4:0.415525 6:1 7:0.541985 9:0.241935 11:0.333333 13:0.458333 
1 1:1 2:1 3:0.0943396 4:0.187215 6:1 7:0.587786 8:1 9:0.483871 10:0.5 13:0.333333 
1 1:1 2:1 3:0.245283 4:0.401826 6:1 7:0.610687 9:0.0645161 10:0.5 13:0.770833 
1 1:1 2:0.666667 3:0.339623 4:0.239726 7:0.572519 9:0.290323 10:0.5 11:1 12:1 13:0.6875 
1 1:1 2:0.333333 3:0.377358 4:0.171233 7:0.664122 9:0.129032 11:0.333333 13:0.479167 
1 1:1 2:1 3:0.264151 4:0.219178 6:1 7:0.877863 13:0.395833 
0.3251512227681488 1:1 2:1 3:0.198113 4:0.305936 6:1 7:0.870229 13:0.333333 
1 2:1 3:0.320755 4:0.40411 6:1 7:0.671756 11:0.333333 13:0.583333 
0.01471910960464823 2:0.666667 3:0.150943 4:0.317352 5:1 6:1 7:0.450382 11:0.333333 13:0.875 
1 1:1 2:0.333333 3:0.132075 4:0.417808 7:0.648855 12:1 13:0.520833 
0.5627933442601446 1:1 3:0.226415 4:0.136986 6:1 7:0.908397 10:0.5 12:0.75 13:0.479167 
1 1:1 2:0.333333 3:0.386792 4:0.175799 7:0.465649 10:0.5 12:0.75 13:0.25 
1 1:1 2:0.666667 3:0.0566038 4:0.219178 7:0.549618 8:1 9:0.193548 10:0.5 13:0.458333 
1 1:1 2:0.666667 3:0.245283 4:0.30137 6:1 7:0.580153 9:0.0645161 10:0.5 12:1 13:0.520833 
1 1:1 2:0.666667 4:0.230594 7:0.633588 8:1 11:0.333333 12:1 13:0.458333 
1 1:1 2:1 3:0.433962 4:0.308219 6:1 7:0.877863 8:1 13:0.458333 
1 1:1 2:0.666667 3:0.292453 4:0.271689 5:1 6:1 7:0.725191 9:0.387097 10:0.5 13:0.458333 
1 1:1 2:0.333333 3:0.433962 4:0.216895 7:0.709924 8:1 13:0.625 
1 1:1 2:0.666667 3:0.103774 4:0.260274 6:1 7:0.633588 8:1 9:0.0967742 10:0.5 12:1 13:0.604167 
1 1:1 3:0.54717 4:0.392694 5:1 7:0.816794 9:0.193548 10:0.5 12:1 13:0.479167 
1 2:0.666667 3:0.198113 4:1 6:1 7:0.679389 9:0.258065 10:0.5 12:1 13:0.791667 
1 1:1 2:0.666667 3:0.226415 4:0.344749 7:0.610687 9:0.16129 11:0.333333 12:1 13:0.8125 
1 1:1 2:0.333333 3:0.0660377 4:0.1621 5:1 7:0.648855 12:1 13:0.354167 
0.03927796505563527 2:1 3:0.0566038 4:0.278539 6:1 7:0.389313 9:0.16129 10:0.5 13:0.604167 
1 1:1 2:0.666667 3:0.283019 4:0.294521 5:1 7:0.793893 11:0.666667 13:0.395833 
1 1:1 2:1 3:0.358491 4:0.184932 7:0.740458 8:1 12:1 13:0.583333 
1 2:0.333333 3:0.358491 4:0.369863 5:1 6:1 7:0.671756 8:1 11:0.333333 13:0.520833 
1 1:1 2:1 3:0.45283 4:0.228311 6:1 7:0.305344 8:1 12:1 13:0.5 
0.8310376246415477 2:1 3:0.433962 4:0.611872 6:1 7:0.656489 9:0.193548 10:0.5 13:0.6875 
1 1:1 2:1 3:0.132075 4:0.244292 5:1 7:0.580153 9:0.016129 11:1 12:1 13:0.479167 
1 1:1 2:0.666667 3:0.339623 4:0.431507 7:0.694656 9:0.306452 11:0.333333 13:0.291667 
1 1:1 2:0.666667 3:0.339623 4:0.273973 5:1 6:1 7:0.778626 11:1 13:0.5 
1 1:1 3:0.509434 4:0.269406 6:1 7:0.816794 9:0.129032 11:0.666667 13:0.270833 
1 1:1 3:0.792453 4:0.328767 6:1 7:0.564885 9:0.677419 10:1 12:1 13:0.625 
1 1:1 2:0.666667 3:0.245283 4:0.260274 5:1 7:0.938931 9:0.129032 10:1 12:1 13:0.270833 
1 1:1 3:0.622642 4:0.246575 5:1 6:1 7:0.458015 9:0.016129 10:0.5 11:0.333333 13:0.833333 
1 2:1 3:0.415094 4:0.251142 6:1 7:0.618321 8:1 9:0.0322581 10:0.5 13:0.333333 
1 2:1 3:0.811321 4:0.454338 7:0.633588 8:1 13:0.729167 
1 1:1 2:0.666667 3:0.528302 5:1 7:0.778626 9:0.0322581 11:0.333333 12:1 13:0.583333 
1 2:0.666667 3:0.433962 4:0.426941 7:0.473282 9:0.0322581 12:1 13:0.729167 
1 1:1 2:1 3:0.150943 4:0.194064 7:0.687023 12:1 13:0.291667 
1 1:1 2:0.666667 3:0.339623 4:0.200913 6:1 7:0.740458 9:0.322581 10:0.5 13:0.25 
1 1:1 3:0.245283 4:0.152968 6:1 7:0.694656 9:0.306452 10:0.5 12:1 13:0.5625 
1 2:1 3:0.415094 4:0.267123 6:1 7:0.618321 8:1 10:0.5 13:0.354167 
1 2:1 3:0.339623 4:0.40411 7:0.389313 9:0.322581 10:0.5 11:0.666667 13:0.729167 
1 1:1 2:1 3:0.415094 4:0.33105 6:1 7:0.847328 13:0.625 
0.6996832576809421 2:0.666667 3:0.169811 4:0.324201 6:1 7:0.770992 8:1 13:0.25 
1 1:1 2:1 3:0.169811 4:0.178082 7:0.549618 9:0.016129 13:0.375 
1 2:0.333333 3:0.245283 4:0.326484 6:1 7:0.381679 8:1 9:0.0322581 11:0.333333 13:0.9375 
1 1:1 2:1 3:0.150943 4:0.171233 7:0.419847 8:1 9:0.241935 10:0.5 12:0.75 13:0.583333 
1 1:1 2:1 3:0.320755 4:0.312785 7:0.259542 8:1 9:0.0322581 10:0.5 11:0.333333 12:1 13:0.729167 
1 1:1 2:1 3:0.198113 4:0.40411 7:0.839695 9:0.193548 10:0.5 13:0.291667 
1 2:1 3:0.113208 4:0.221461 7:0.541985 9:0.0483871 11:0.666667 13:0.791667 
0.8384653707823949 2:0.666667 3:0.433962 4:0.1621 6:0.5 7:0.343511 9:0.177419 10:0.5 13:0.979167 
0.365012779125467 2:0.666667 3:0.226415 4:0.26484 7:0.59542 9:0.0483871 10:0.5 11:0.333333 13:0.3125 
1 1:1 2:1 3:0.622642 4:0.232877 6:1 7:0.51145 9:0.370968 12:0.75 13:0.770833 
1 2:1 3:0.169811 4:0.0525114 7:0.412214 9:0.258065 10:0.5 13:0.875 
1 1:1 3:0.716981 4:0.230594 6:1 7:0.641221 9:0.0967742 10:0.5 12:1 13:0.729167 
1 2:0.666667 3:0.490566 4:0.347032 6:1 7:0.618321 10:0.5 11:0.333333 13:0.770833 
1 2:1 3:0.339623 4:0.1621 7:0.458015 9:0.0967742 10:0.5 13:0.604167 
1 1:1 2:0.333333 3:0.292453 4:0.214612 7:0.557252 9:0.0645161 10:0.5 12:1 13:0.604167 
1 1:1 2:0.333333 3:0.339623 4:0.216895 6:1 7:0.70229 12:1 13:0.5625 
-1 2:1 3:0.339623 4:0.408676 7:0.541985 8:1 9:0.193548 10:0.5 12:1 13:0.458333 
-1 1:1 2:1 3:0.245283 4:0.141553 7:0.320611 9:0.225806 10:0.5 11:0.333333 12:1 13:0.520833 
-1 1:1 2:0.666667 3:0.433962 4:0.134703 6:1 7:0.641221 9:0.483871 10:0.5 13:0.645833 
-1 1:1 2:0.666667 3:0.528302 4:0.239726 7:0.580153 9:0.580645 10:0.5 13:0.354167 
-1 1:1 2:1 3:0.292453 4:0.292237 5:1 7:0.70229 9:0.0322581 10:0.5 11:0.666667 12:1 13:0.791667 
-1 1:1 2:1 3:0.150943 4:0.278539 6:1 7:0.664122 9:0.0967742 11:0.666667 12:0.75 13:0.75 
-1 1:1 2:1 3:0.150943 4:0.1621 6:1 7:0.80916 11:0.333333 13:0.3125 
-0.9378579132879397 1:1 2:0.666667 3:0.811321 4:0.3379 5:1 6:1 7:0.603053 8:1 9:0.258065 10:0.5 12:1 13:0.8125 
-0.1042197220344083 1:1 2:1 3:0.320755 4:0.294521 7:0.687023 8:1 11:0.333333 12:1 13:0.479167 
-1 2:1 3:0.528302 4:0.30137 6:1 7:0.656489 9:0.419355 10:0.5 11:0.666667 12:1 13:0.645833 
-1 1:1 2:0.666667 3:0.320755 4:0.23516 6:1 7:0.603053 9:0.0645161 10:0.5 11:0.333333 12:1 13:0.583333 
-1 1:1 2:1 3:0.226415 4:0.212329 7:0.526718 9:0.193548 10:0.5 12:1 13:0.208333 
-1 2:1 3:0.481132 4:0.413242 6:1 7:0.572519 8:1 9:0.16129 10:0.5 12:1 13:0.666667 
-1 1:1 2:1 3:0.292453 4:0.280822 5:1 6:1 7:0.557252 8:1 9:0.193548 10:0.5 11:0.333333 13:0.5625 
-0.975759834454901 2:1 3:0.358491 4:0.490868 5:1 6:1 7:0.496183 8:1 9:0.483871 10:0.5 12:1 13:0.291667 
-1 2:0.666667 3:0.339623 4:0.312785 7:0.198473 9:0.193548 10:0.5 11:0.333333 12:1 13:0.6875 
-1 1:1 3:0.415094 4:0.356164 5:1 6:1 7:0.78626 9:0.225806 10:0.5 11:0.333333 13:0.75 
-1 1:1 2:0.333333 3:0.245283 4:0.353881 6:1 7:0.244275 9:0.225806 10:0.5 11:0.333333 12:1 13:0.6875 
-1 1:1 3:0.716981 4:0.369863 6:1 7:0.671756 9:0.0322581 10:0.5 12:1 13:0.625 
-1 1:1 2:0.666667 3:0.292453 4:0.417808 7:0.458015 8:1 9:0.290323 10:0.5 12:1 13:0.729167 
-1 1:1 2:0.666667 3:0.132075 4:0.267123 7:0.618321 13:0.375 
-0.5899002093699655 1:1 2:1 3:0.339623 4:0.447489 6:1 7:0.290076 9:0.387097 10:0.5 11:1 13:0.854167 
-1 1:1 2:1 3:0.433962 4:0.394977 7:0.778626 8:1 9:0.258065 12:1 13:0.458333 
-1 1:1 2:1 3:0.292453 4:0.39726 6:1 7:0.763359 11:0.666667 12:1 13:0.604167 
-0.5344932445286776 1:1 2:1 3:0.292453 4:0.406393 6:1 7:0.694656 8:1 11:1 13:1 
-1 1:1 2:1 3:0.301887 4:0.356164 6:1 7:0.648855 8:1 12:1 13:0.125 
-1 2:1 3:0.754717 4:0.280822 7:0.549618 8:1 10:0.5 13:0.625 
-1 1:1 2:1 3:0.283019 4:0.3379 6:1 7:0.725191 9:0.0806452 10:0.5 12:1 13:0.395833 
-1 2:1 3:0.603774 4:0.408676 6:1 7:0.687023 13:0.645833 
-1 1:1 2:0.333333 3:0.924528 4:0.358447 6:1 7:0.946565 11:0.333333 12:1 13:0.520833 
-0.6270208995989627 1:1 2:1 3:0.358491 4:0.276256 5:1 6:1 7:0.549618 8:1 9:0.016129 10:0.5 12:1 13:0.291667 
-1 2:1 3:0.415094 4:0.383562 5:1 7:0.267176 9:0.306452 10:0.5 11:1 13:0.6875 
-1 1:1 3:0.622642 4:0.335616 6:1 7:0.412214 13:0.625 
-1 2:1 3:0.528302 4:0.269406 7:0.633588 8:1 9:0.225806 10:0.5 13:0.6875 
-1 1:1 3:0.245283 4:0.239726 7:0.847328 8:1 9:0.612903 10:0.5 12:1 13:0.1875 
-1 1:1 2:1 3:0.169811 4:0.237443 7:0.679389 11:0.333333 13:0.479167 
-1 2:1 3:0.132075 4:0.326484 7:0.748092 8:1 9:0.290323 10:0.5 11:0.666667 13:0.708333 
-1 1:1 2:1 3:0.150943 4:0.182648 6:1 7:0.282443 8:1 10:0.5 11:0.333333 13:0.520833 
-1 1:1 2:1 3:0.169811 4:0.196347 6:1 7:0.465649 8:1 9:0.016129 11:0.333333 13:0.770833 
-1 2:1 3:0.811321 4:0.458904 6:0.5 7:0.351145 8:1 9:0.548387 10:0.5 13:0.541667 
-1 1:1 2:0.666667 3:0.226415 4:0.0525114 6:1 7:0.419847 9:0.129032 11:1 13:0.416667 
-1 1:1 2:1 3:0.245283 4:0.280822 6:1 7:0.557252 9:0.129032 12:1 13:0.354167 
-1 1:1 3:0.377358 4:0.246575 7:0.564885 9:0.419355 10:0.5 11:0.666667 13:0.666667 
-1 1:1 2:1 3:0.245283 4:0.253425 9:0.16129 10:0.5 13:0.791667 
-1 1:1 2:1 3:0.0566038 4:0.246575 7:0.648855 9:0.016129 11:0.333333 12:1 13:0.604167 
-1 1:1 2:1 3:0.150943 4:0.340183 6:1 7:0.358779 8:1 9:0.16129 10:0.5 11:0.333333 13:0.375 
-1 1:1 2:1 3:0.292453 4:0.196347 7:0.740458 9:0.16129 11:0.666667 12:1 13:0.479167 
-1 1:1 2:0.333333 3:0.283019 4:0.308219 7:0.534351 9:0.0483871 12:1 13:0.583333 
-1 2:0.333333 3:0.396226 4:0.440639 5:1 6:1 7:0.618321 11:0.666667 13:0.604167 
-1 1:1 2:1 3:0.415094 4:0.0913242 6:1 7:0.412214 8:1 9:0.580645 10:0.5 11:0.333333 13:0.666667 
-1 1:1 2:1 3:0.320755 4:0.178082 5:1 7:0.648855 8:1 9:0.16129 10:0.5 13:0.479167 
-1 1:1 2:0.666667 3:0.301887 4:0.210046 5:1 7:0.480916 9:0.354839 10:0.5 11:0.333333 12:0.75 13:0.625 
-1 1:1 2:1 3:0.54717 4:0.221461 7:0.839695 12:1 13:0.229167 
-1 1:1 3:0.377358 4:0.178082 7:0.694656 9:0.129032 11:0.666667 13:0.625 
-1 1:1 2:0.333333 3:0.566038 4:0.242009 6:1 7:0.709924 11:0.333333 13:0.583333 
-1 1:1 2:1 3:0.509434 4:0.175799 7:0.687023 11:0.333333 12:1 13:0.666667 
-1 1:1 2:0.666667 3:0.54717 4:0.196347 6:1 7:0.603053 9:0.129032 10:0.5 12:1 13:0.791667 
-1 2:1 3:0.283019 4:0.1621 7:0.496183 8:1 10:0.5 13:0.708333 
-1 2:1 3:0.433962 4:0.262557 7:0.396947 8:1 9:0.0322581 10:0.5 12:1 13:0.583333 
-1 1:1 3:0.150943 4:0.315068 7:0.465649 9:0.193548 10:0.5 12:1 13:0.333333 
-0.02860129654323102 1:1 2:1 3:0.471698 4:0.152968 5:1 7:0.534351 9:0.548387 10:0.5 11:0.666667 12:1 13:0.8125 
-1 2:0.333333 3:0.339623 4:0.251142 6:1 7:0.78626 10:0.5 11:0.333333 13:0.583333 
